digraph Tree {
node [shape=box, style="filled, rounded", color="black", fontname="helvetica"] ;
edge [fontname="helvetica"] ;
0 [label="Descriptor <= 0.75\nentropy = 0.909\nsamples = 280\nvalue = [300, 144]\nclass = class_1", fillcolor="#f1bd98"] ;
1 [label="entropy = 0.037\nsamples = 162\nvalue = [256, 1]\nclass = class_1", fillcolor="#e5813a"] ;
0 -> 1 [labeldistance=2.5, labelangle=45, headlabel="True"] ;
2 [label="entropy = 0.787\nsamples = 118\nvalue = [44, 143]\nclass = class_2", fillcolor="#76bbed"] ;
0 -> 2 [labeldistance=2.5, labelangle=-45, headlabel="False"] ;
}