digraph Tree {
node [shape=box, style="filled, rounded", color="black", fontname="helvetica"] ;
edge [fontname="helvetica"] ;
0 [label="Descriptor <= 0.742\nentropy = 0.929\nsamples = 277\nvalue = [291, 153]\nclass = class_1", fillcolor="#f3c3a1"] ;
1 [label="entropy = 0.038\nsamples = 148\nvalue = [243, 1]\nclass = class_1", fillcolor="#e5823a"] ;
0 -> 1 [labeldistance=2.5, labelangle=45, headlabel="True"] ;
2 [label="entropy = 0.795\nsamples = 129\nvalue = [48, 152]\nclass = class_2", fillcolor="#78bced"] ;
0 -> 2 [labeldistance=2.5, labelangle=-45, headlabel="False"] ;
}