digraph Tree {
node [shape=box, style="filled, rounded", color="black", fontname="helvetica"] ;
edge [fontname="helvetica"] ;
0 [label="Descriptor <= 0.749\nentropy = 0.921\nsamples = 293\nvalue = [295, 149]\nclass = class_1", fillcolor="#f2c19d"] ;
1 [label="entropy = 0.067\nsamples = 166\nvalue = [250, 2]\nclass = class_1", fillcolor="#e5823b"] ;
0 -> 1 [labeldistance=2.5, labelangle=45, headlabel="True"] ;
2 [label="entropy = 0.786\nsamples = 127\nvalue = [45, 147]\nclass = class_2", fillcolor="#76bbed"] ;
0 -> 2 [labeldistance=2.5, labelangle=-45, headlabel="False"] ;
}