digraph Tree {
node [shape=box, style="filled, rounded", color="black", fontname="helvetica"] ;
edge [fontname="helvetica"] ;
0 [label="Descriptor <= -1.5\nentropy = 0.965\nsamples = 63\nvalue = [61, 39]\nclass = class_1", fillcolor="#f6d2b8"] ;
1 [label="entropy = 0.0\nsamples = 22\nvalue = [33, 0]\nclass = class_1", fillcolor="#e58139"] ;
0 -> 1 [labeldistance=2.5, labelangle=45, headlabel="True"] ;
2 [label="entropy = 0.98\nsamples = 41\nvalue = [28, 39]\nclass = class_2", fillcolor="#c7e3f8"] ;
0 -> 2 [labeldistance=2.5, labelangle=-45, headlabel="False"] ;
}