digraph Tree {
node [shape=box, style="filled, rounded", color="black", fontname="helvetica"] ;
edge [fontname="helvetica"] ;
0 [label="Descriptor <= -1.497\nentropy = 0.986\nsamples = 66\nvalue = [57, 43]\nclass = class_1", fillcolor="#f9e0ce"] ;
1 [label="entropy = 0.0\nsamples = 16\nvalue = [26, 0]\nclass = class_1", fillcolor="#e58139"] ;
0 -> 1 [labeldistance=2.5, labelangle=45, headlabel="True"] ;
2 [label="entropy = 0.981\nsamples = 50\nvalue = [31, 43]\nclass = class_2", fillcolor="#c8e4f8"] ;
0 -> 2 [labeldistance=2.5, labelangle=-45, headlabel="False"] ;
}