digraph Tree {
node [shape=box, style="filled, rounded", color="black", fontname="helvetica"] ;
edge [fontname="helvetica"] ;
0 [label="Descriptor <= -1.247\nentropy = 0.995\nsamples = 59\nvalue = [54, 46]\nclass = class_1", fillcolor="#fbece2"] ;
1 [label="entropy = 0.497\nsamples = 32\nvalue = [49, 6]\nclass = class_1", fillcolor="#e89051"] ;
0 -> 1 [labeldistance=2.5, labelangle=45, headlabel="True"] ;
2 [label="entropy = 0.503\nsamples = 27\nvalue = [5, 40]\nclass = class_2", fillcolor="#52a9e8"] ;
0 -> 2 [labeldistance=2.5, labelangle=-45, headlabel="False"] ;
}