digraph Tree {
node [shape=box, style="filled, rounded", color="black", fontname="helvetica"] ;
edge [fontname="helvetica"] ;
0 [label="Descriptor <= -1.264\nentropy = 0.977\nsamples = 63\nvalue = [59, 41]\nclass = class_1", fillcolor="#f7d9c3"] ;
1 [label="entropy = 0.579\nsamples = 35\nvalue = [50, 8]\nclass = class_1", fillcolor="#e99559"] ;
0 -> 1 [labeldistance=2.5, labelangle=45, headlabel="True"] ;
2 [label="entropy = 0.75\nsamples = 28\nvalue = [9, 33]\nclass = class_2", fillcolor="#6fb8ec"] ;
0 -> 2 [labeldistance=2.5, labelangle=-45, headlabel="False"] ;
}