digraph Tree {
node [shape=box, style="filled, rounded", color="black", fontname="helvetica"] ;
edge [fontname="helvetica"] ;
0 [label="Descriptor <= -1.258\nentropy = 0.951\nsamples = 70\nvalue = [63, 37]\nclass = class_1", fillcolor="#f4cbad"] ;
1 [label="entropy = 0.345\nsamples = 40\nvalue = [58, 4]\nclass = class_1", fillcolor="#e78a47"] ;
0 -> 1 [labeldistance=2.5, labelangle=45, headlabel="True"] ;
2 [label="entropy = 0.562\nsamples = 30\nvalue = [5, 33]\nclass = class_2", fillcolor="#57ace9"] ;
0 -> 2 [labeldistance=2.5, labelangle=-45, headlabel="False"] ;
}