digraph Tree {
node [shape=box, style="filled, rounded", color="black", fontname="helvetica"] ;
edge [fontname="helvetica"] ;
0 [label="Descriptor <= -1.451\nentropy = 0.971\nsamples = 66\nvalue = [60, 40]\nclass = class_1", fillcolor="#f6d5bd"] ;
1 [label="entropy = 0.0\nsamples = 22\nvalue = [38, 0]\nclass = class_1", fillcolor="#e58139"] ;
0 -> 1 [labeldistance=2.5, labelangle=45, headlabel="True"] ;
2 [label="entropy = 0.938\nsamples = 44\nvalue = [22, 40]\nclass = class_2", fillcolor="#a6d3f3"] ;
0 -> 2 [labeldistance=2.5, labelangle=-45, headlabel="False"] ;
}