digraph Tree {
node [shape=box, style="filled, rounded", color="black", fontname="helvetica"] ;
edge [fontname="helvetica"] ;
0 [label="Descriptor <= -1.237\nentropy = 0.995\nsamples = 64\nvalue = [54, 46]\nclass = class_1", fillcolor="#fbece2"] ;
1 [label="entropy = 0.629\nsamples = 38\nvalue = [48, 9]\nclass = class_1", fillcolor="#ea995e"] ;
0 -> 1 [labeldistance=2.5, labelangle=45, headlabel="True"] ;
2 [label="entropy = 0.583\nsamples = 26\nvalue = [6, 37]\nclass = class_2", fillcolor="#59ade9"] ;
0 -> 2 [labeldistance=2.5, labelangle=-45, headlabel="False"] ;
}