digraph Tree {
node [shape=box, style="filled, rounded", color="black", fontname="helvetica"] ;
edge [fontname="helvetica"] ;
0 [label="Descriptor <= -1.454\nentropy = 0.995\nsamples = 57\nvalue = [54, 46]\nclass = class_1", fillcolor="#fbece2"] ;
1 [label="entropy = 0.0\nsamples = 17\nvalue = [32, 0]\nclass = class_1", fillcolor="#e58139"] ;
0 -> 1 [labeldistance=2.5, labelangle=45, headlabel="True"] ;
2 [label="entropy = 0.908\nsamples = 40\nvalue = [22, 46]\nclass = class_2", fillcolor="#98ccf1"] ;
0 -> 2 [labeldistance=2.5, labelangle=-45, headlabel="False"] ;
}