digraph Tree {
node [shape=box, style="filled, rounded", color="black", fontname="helvetica"] ;
edge [fontname="helvetica"] ;
0 [label="Descriptor <= -1.344\nentropy = 0.997\nsamples = 62\nvalue = [53, 47]\nclass = class_1", fillcolor="#fcf1e9"] ;
1 [label="entropy = 0.271\nsamples = 27\nvalue = [41, 2]\nclass = class_1", fillcolor="#e68743"] ;
0 -> 1 [labeldistance=2.5, labelangle=45, headlabel="True"] ;
2 [label="entropy = 0.742\nsamples = 35\nvalue = [12, 45]\nclass = class_2", fillcolor="#6eb7ec"] ;
0 -> 2 [labeldistance=2.5, labelangle=-45, headlabel="False"] ;
}