digraph Tree {
node [shape=box, style="filled, rounded", color="black", fontname="helvetica"] ;
edge [fontname="helvetica"] ;
0 [label="Descriptor <= -1.276\nentropy = 0.925\nsamples = 61\nvalue = [66, 34]\nclass = class_1", fillcolor="#f2c29f"] ;
1 [label="entropy = 0.222\nsamples = 32\nvalue = [54, 2]\nclass = class_1", fillcolor="#e68640"] ;
0 -> 1 [labeldistance=2.5, labelangle=45, headlabel="True"] ;
2 [label="entropy = 0.845\nsamples = 29\nvalue = [12, 32]\nclass = class_2", fillcolor="#83c2ef"] ;
0 -> 2 [labeldistance=2.5, labelangle=-45, headlabel="False"] ;
}