digraph Tree {
node [shape=box, style="filled, rounded", color="black", fontname="helvetica"] ;
edge [fontname="helvetica"] ;
0 [label="Descriptor <= -1.304\nentropy = 0.977\nsamples = 63\nvalue = [59, 41]\nclass = class_1", fillcolor="#f7d9c3"] ;
1 [label="entropy = 0.531\nsamples = 34\nvalue = [51, 7]\nclass = class_1", fillcolor="#e99254"] ;
0 -> 1 [labeldistance=2.5, labelangle=45, headlabel="True"] ;
2 [label="entropy = 0.702\nsamples = 29\nvalue = [8, 34]\nclass = class_2", fillcolor="#68b4eb"] ;
0 -> 2 [labeldistance=2.5, labelangle=-45, headlabel="False"] ;
}