digraph Tree {
node [shape=box, style="filled, rounded", color="black", fontname="helvetica"] ;
edge [fontname="helvetica"] ;
0 [label="Descriptor <= -1.497\nentropy = 0.958\nsamples = 59\nvalue = [62, 38]\nclass = class_1", fillcolor="#f5ceb2"] ;
1 [label="entropy = 0.0\nsamples = 20\nvalue = [34, 0]\nclass = class_1", fillcolor="#e58139"] ;
0 -> 1 [labeldistance=2.5, labelangle=45, headlabel="True"] ;
2 [label="entropy = 0.983\nsamples = 39\nvalue = [28, 38]\nclass = class_2", fillcolor="#cbe5f8"] ;
0 -> 2 [labeldistance=2.5, labelangle=-45, headlabel="False"] ;
}