digraph Tree {
node [shape=box, style="filled, rounded", color="black", fontname="helvetica"] ;
edge [fontname="helvetica"] ;
0 [label="Descriptor <= -1.304\nentropy = 0.99\nsamples = 67\nvalue = [56, 44]\nclass = class_1", fillcolor="#f9e4d5"] ;
1 [label="entropy = 0.475\nsamples = 34\nvalue = [44, 5]\nclass = class_1", fillcolor="#e88f50"] ;
0 -> 1 [labeldistance=2.5, labelangle=45, headlabel="True"] ;
2 [label="entropy = 0.787\nsamples = 33\nvalue = [12, 39]\nclass = class_2", fillcolor="#76bbed"] ;
0 -> 2 [labeldistance=2.5, labelangle=-45, headlabel="False"] ;
}