digraph Tree {
node [shape=box, style="filled, rounded", color="black", fontname="helvetica"] ;
edge [fontname="helvetica"] ;
0 [label="Descriptor <= -1.264\nentropy = 0.981\nsamples = 63\nvalue = [58, 42]\nclass = class_1", fillcolor="#f8dcc8"] ;
1 [label="entropy = 0.555\nsamples = 37\nvalue = [54, 8]\nclass = class_1", fillcolor="#e99456"] ;
0 -> 1 [labeldistance=2.5, labelangle=45, headlabel="True"] ;
2 [label="entropy = 0.485\nsamples = 26\nvalue = [4, 34]\nclass = class_2", fillcolor="#50a9e8"] ;
0 -> 2 [labeldistance=2.5, labelangle=-45, headlabel="False"] ;
}