digraph Tree {
node [shape=box, style="filled, rounded", color="black", fontname="helvetica"] ;
edge [fontname="helvetica"] ;
0 [label="Descriptor <= -1.497\nentropy = 0.965\nsamples = 65\nvalue = [61, 39]\nclass = class_1", fillcolor="#f6d2b8"] ;
1 [label="entropy = 0.0\nsamples = 18\nvalue = [29, 0]\nclass = class_1", fillcolor="#e58139"] ;
0 -> 1 [labeldistance=2.5, labelangle=45, headlabel="True"] ;
2 [label="entropy = 0.993\nsamples = 47\nvalue = [32, 39]\nclass = class_2", fillcolor="#dbedfa"] ;
0 -> 2 [labeldistance=2.5, labelangle=-45, headlabel="False"] ;
}