digraph Tree {
node [shape=box, style="filled, rounded", color="black", fontname="helvetica"] ;
edge [fontname="helvetica"] ;
0 [label="Descriptor <= -1.304\nentropy = 1.0\nsamples = 61\nvalue = [50, 50]\nclass = class_1", fillcolor="#ffffff"] ;
1 [label="entropy = 0.551\nsamples = 29\nvalue = [41, 6]\nclass = class_1", fillcolor="#e99356"] ;
0 -> 1 [labeldistance=2.5, labelangle=45, headlabel="True"] ;
2 [label="entropy = 0.657\nsamples = 32\nvalue = [9, 44]\nclass = class_2", fillcolor="#61b1ea"] ;
0 -> 2 [labeldistance=2.5, labelangle=-45, headlabel="False"] ;
}