digraph Tree {
node [shape=box, style="filled, rounded", color="black", fontname="helvetica"] ;
edge [fontname="helvetica"] ;
0 [label="Descriptor <= -1.247\nentropy = 0.977\nsamples = 64\nvalue = [59, 41]\nclass = class_1", fillcolor="#f7d9c3"] ;
1 [label="entropy = 0.371\nsamples = 36\nvalue = [52, 4]\nclass = class_1", fillcolor="#e78b48"] ;
0 -> 1 [labeldistance=2.5, labelangle=45, headlabel="True"] ;
2 [label="entropy = 0.632\nsamples = 28\nvalue = [7, 37]\nclass = class_2", fillcolor="#5eb0ea"] ;
0 -> 2 [labeldistance=2.5, labelangle=-45, headlabel="False"] ;
}