digraph Tree {
node [shape=box, style="filled, rounded", color="black", fontname="helvetica"] ;
edge [fontname="helvetica"] ;
0 [label="Descriptor <= 0.742\nentropy = 0.918\nsamples = 276\nvalue = [296, 148]\nclass = class_1", fillcolor="#f2c09c"] ;
1 [label="entropy = 0.039\nsamples = 153\nvalue = [242, 1]\nclass = class_1", fillcolor="#e5823a"] ;
0 -> 1 [labeldistance=2.5, labelangle=45, headlabel="True"] ;
2 [label="entropy = 0.84\nsamples = 123\nvalue = [54, 147]\nclass = class_2", fillcolor="#82c1ef"] ;
0 -> 2 [labeldistance=2.5, labelangle=-45, headlabel="False"] ;
}