digraph Tree {
node [shape=box, style="filled, rounded", color="black", fontname="helvetica"] ;
edge [fontname="helvetica"] ;
0 [label="Descriptor <= 0.75\nentropy = 0.935\nsamples = 284\nvalue = [288, 156]\nclass = class_1", fillcolor="#f3c5a4"] ;
1 [label="entropy = 0.04\nsamples = 154\nvalue = [235, 1]\nclass = class_1", fillcolor="#e5823a"] ;
0 -> 1 [labeldistance=2.5, labelangle=45, headlabel="True"] ;
2 [label="entropy = 0.819\nsamples = 130\nvalue = [53, 155]\nclass = class_2", fillcolor="#7dbfee"] ;
0 -> 2 [labeldistance=2.5, labelangle=-45, headlabel="False"] ;
}