digraph Tree {
node [shape=box, style="filled, rounded", color="black", fontname="helvetica"] ;
edge [fontname="helvetica"] ;
0 [label="Descriptor <= 0.75\nentropy = 0.931\nsamples = 283\nvalue = [290, 154]\nclass = class_1", fillcolor="#f3c4a2"] ;
1 [label="entropy = 0.119\nsamples = 158\nvalue = [244, 4]\nclass = class_1", fillcolor="#e5833c"] ;
0 -> 1 [labeldistance=2.5, labelangle=45, headlabel="True"] ;
2 [label="entropy = 0.786\nsamples = 125\nvalue = [46, 150]\nclass = class_2", fillcolor="#76bbed"] ;
0 -> 2 [labeldistance=2.5, labelangle=-45, headlabel="False"] ;
}