digraph Tree {
node [shape=box, style="filled, rounded", color="black", fontname="helvetica"] ;
edge [fontname="helvetica"] ;
0 [label="Descriptor <= 0.745\nentropy = 0.923\nsamples = 279\nvalue = [294, 150]\nclass = class_1", fillcolor="#f2c19e"] ;
1 [label="entropy = 0.0\nsamples = 155\nvalue = [249, 0]\nclass = class_1", fillcolor="#e58139"] ;
0 -> 1 [labeldistance=2.5, labelangle=45, headlabel="True"] ;
2 [label="entropy = 0.779\nsamples = 124\nvalue = [45, 150]\nclass = class_2", fillcolor="#74baed"] ;
0 -> 2 [labeldistance=2.5, labelangle=-45, headlabel="False"] ;
}