digraph Tree {
node [shape=box, style="filled, rounded", color="black", fontname="helvetica"] ;
edge [fontname="helvetica"] ;
0 [label="Descriptor <= 0.752\nentropy = 0.96\nsamples = 278\nvalue = [274, 170]\nclass = class_1", fillcolor="#f5cfb4"] ;
1 [label="entropy = 0.0\nsamples = 147\nvalue = [237, 0]\nclass = class_1", fillcolor="#e58139"] ;
0 -> 1 [labeldistance=2.5, labelangle=45, headlabel="True"] ;
2 [label="entropy = 0.677\nsamples = 131\nvalue = [37, 170]\nclass = class_2", fillcolor="#64b2eb"] ;
0 -> 2 [labeldistance=2.5, labelangle=-45, headlabel="False"] ;
}