digraph Tree {
node [shape=box, style="filled, rounded", color="black", fontname="helvetica"] ;
edge [fontname="helvetica"] ;
0 [label="Descriptor <= 0.742\nentropy = 0.918\nsamples = 278\nvalue = [296, 148]\nclass = class_1", fillcolor="#f2c09c"] ;
1 [label="entropy = 0.038\nsamples = 153\nvalue = [244, 1]\nclass = class_1", fillcolor="#e5823a"] ;
0 -> 1 [labeldistance=2.5, labelangle=45, headlabel="True"] ;
2 [label="entropy = 0.829\nsamples = 125\nvalue = [52, 147]\nclass = class_2", fillcolor="#7fc0ee"] ;
0 -> 2 [labeldistance=2.5, labelangle=-45, headlabel="False"] ;
}