digraph Tree {
node [shape=box, style="filled, rounded", color="black", fontname="helvetica"] ;
edge [fontname="helvetica"] ;
0 [label="Descriptor <= 1.724\nentropy = 0.995\nsamples = 63\nvalue = [54, 46]\nclass = class_1", fillcolor="#fbece2"] ;
1 [label="entropy = 0.0\nsamples = 23\nvalue = [0, 38]\nclass = class_2", fillcolor="#399de5"] ;
0 -> 1 [labeldistance=2.5, labelangle=45, headlabel="True"] ;
2 [label="entropy = 0.555\nsamples = 40\nvalue = [54, 8]\nclass = class_1", fillcolor="#e99456"] ;
0 -> 2 [labeldistance=2.5, labelangle=-45, headlabel="False"] ;
}