digraph Tree {
node [shape=box, style="filled, rounded", color="black", fontname="helvetica"] ;
edge [fontname="helvetica"] ;
0 [label="Descriptor <= 1.767\nentropy = 0.99\nsamples = 63\nvalue = [56, 44]\nclass = class_1", fillcolor="#f9e4d5"] ;
1 [label="entropy = 0.575\nsamples = 30\nvalue = [6, 38]\nclass = class_2", fillcolor="#58ace9"] ;
0 -> 1 [labeldistance=2.5, labelangle=45, headlabel="True"] ;
2 [label="entropy = 0.491\nsamples = 33\nvalue = [50, 6]\nclass = class_1", fillcolor="#e89051"] ;
0 -> 2 [labeldistance=2.5, labelangle=-45, headlabel="False"] ;
}