digraph Tree {
node [shape=box, style="filled, rounded", color="black", fontname="helvetica"] ;
edge [fontname="helvetica"] ;
0 [label="Descriptor <= 1.727\nentropy = 0.981\nsamples = 62\nvalue = [58, 42]\nclass = class_1", fillcolor="#f8dcc8"] ;
1 [label="entropy = 0.191\nsamples = 22\nvalue = [1, 33]\nclass = class_2", fillcolor="#3fa0e6"] ;
0 -> 1 [labeldistance=2.5, labelangle=45, headlabel="True"] ;
2 [label="entropy = 0.575\nsamples = 40\nvalue = [57, 9]\nclass = class_1", fillcolor="#e99558"] ;
0 -> 2 [labeldistance=2.5, labelangle=-45, headlabel="False"] ;
}