digraph Tree {
node [shape=box, style="filled, rounded", color="black", fontname="helvetica"] ;
edge [fontname="helvetica"] ;
0 [label="Descriptor <= 1.71\nentropy = 0.965\nsamples = 69\nvalue = [61, 39]\nclass = class_1", fillcolor="#f6d2b8"] ;
1 [label="entropy = 0.316\nsamples = 24\nvalue = [2, 33]\nclass = class_2", fillcolor="#45a3e7"] ;
0 -> 1 [labeldistance=2.5, labelangle=45, headlabel="True"] ;
2 [label="entropy = 0.444\nsamples = 45\nvalue = [59, 6]\nclass = class_1", fillcolor="#e88e4d"] ;
0 -> 2 [labeldistance=2.5, labelangle=-45, headlabel="False"] ;
}