digraph Tree {
node [shape=box, style="filled, rounded", color="black", fontname="helvetica"] ;
edge [fontname="helvetica"] ;
0 [label="Descriptor <= 1.718\nentropy = 0.995\nsamples = 59\nvalue = [54, 46]\nclass = class_1", fillcolor="#fbece2"] ;
1 [label="entropy = 0.276\nsamples = 25\nvalue = [2, 40]\nclass = class_2", fillcolor="#43a2e6"] ;
0 -> 1 [labeldistance=2.5, labelangle=45, headlabel="True"] ;
2 [label="entropy = 0.48\nsamples = 34\nvalue = [52, 6]\nclass = class_1", fillcolor="#e89050"] ;
0 -> 2 [labeldistance=2.5, labelangle=-45, headlabel="False"] ;
}