digraph Tree {
node [shape=box, style="filled, rounded", color="black", fontname="helvetica"] ;
edge [fontname="helvetica"] ;
0 [label="Descriptor <= 1.721\nentropy = 0.981\nsamples = 64\nvalue = [58, 42]\nclass = class_1", fillcolor="#f8dcc8"] ;
1 [label="entropy = 0.183\nsamples = 20\nvalue = [1, 35]\nclass = class_2", fillcolor="#3fa0e6"] ;
0 -> 1 [labeldistance=2.5, labelangle=45, headlabel="True"] ;
2 [label="entropy = 0.498\nsamples = 44\nvalue = [57, 7]\nclass = class_1", fillcolor="#e89051"] ;
0 -> 2 [labeldistance=2.5, labelangle=-45, headlabel="False"] ;
}