digraph Tree {
node [shape=box, style="filled, rounded", color="black", fontname="helvetica"] ;
edge [fontname="helvetica"] ;
0 [label="Descriptor <= 1.66\nentropy = 0.958\nsamples = 67\nvalue = [62, 38]\nclass = class_1", fillcolor="#f5ceb2"] ;
1 [label="entropy = 0.0\nsamples = 19\nvalue = [0, 26]\nclass = class_2", fillcolor="#399de5"] ;
0 -> 1 [labeldistance=2.5, labelangle=45, headlabel="True"] ;
2 [label="entropy = 0.639\nsamples = 48\nvalue = [62, 12]\nclass = class_1", fillcolor="#ea995f"] ;
0 -> 2 [labeldistance=2.5, labelangle=-45, headlabel="False"] ;
}