digraph Tree {
node [shape=box, style="filled, rounded", color="black", fontname="helvetica"] ;
edge [fontname="helvetica"] ;
0 [label="Descriptor <= 1.718\nentropy = 0.999\nsamples = 64\nvalue = [52, 48]\nclass = class_1", fillcolor="#fdf5f0"] ;
1 [label="entropy = 0.0\nsamples = 26\nvalue = [0, 41]\nclass = class_2", fillcolor="#399de5"] ;
0 -> 1 [labeldistance=2.5, labelangle=45, headlabel="True"] ;
2 [label="entropy = 0.525\nsamples = 38\nvalue = [52, 7]\nclass = class_1", fillcolor="#e89254"] ;
0 -> 2 [labeldistance=2.5, labelangle=-45, headlabel="False"] ;
}