digraph Tree {
node [shape=box, style="filled, rounded", color="black", fontname="helvetica"] ;
edge [fontname="helvetica"] ;
0 [label="Descriptor <= 1.721\nentropy = 0.981\nsamples = 59\nvalue = [58, 42]\nclass = class_1", fillcolor="#f8dcc8"] ;
1 [label="entropy = 0.391\nsamples = 23\nvalue = [3, 36]\nclass = class_2", fillcolor="#49a5e7"] ;
0 -> 1 [labeldistance=2.5, labelangle=45, headlabel="True"] ;
2 [label="entropy = 0.464\nsamples = 36\nvalue = [55, 6]\nclass = class_1", fillcolor="#e88f4f"] ;
0 -> 2 [labeldistance=2.5, labelangle=-45, headlabel="False"] ;
}