digraph Tree {
node [shape=box, style="filled, rounded", color="black", fontname="helvetica"] ;
edge [fontname="helvetica"] ;
0 [label="Descriptor <= 1.75\nentropy = 0.951\nsamples = 65\nvalue = [63, 37]\nclass = class_1", fillcolor="#f4cbad"] ;
1 [label="entropy = 0.544\nsamples = 29\nvalue = [5, 35]\nclass = class_2", fillcolor="#55abe9"] ;
0 -> 1 [labeldistance=2.5, labelangle=45, headlabel="True"] ;
2 [label="entropy = 0.211\nsamples = 36\nvalue = [58, 2]\nclass = class_1", fillcolor="#e68540"] ;
0 -> 2 [labeldistance=2.5, labelangle=-45, headlabel="False"] ;
}