digraph Tree {
node [shape=box, style="filled, rounded", color="black", fontname="helvetica"] ;
edge [fontname="helvetica"] ;
0 [label="Descriptor <= 1.714\nentropy = 0.965\nsamples = 68\nvalue = [61, 39]\nclass = class_1", fillcolor="#f6d2b8"] ;
1 [label="entropy = 0.0\nsamples = 25\nvalue = [0, 31]\nclass = class_2", fillcolor="#399de5"] ;
0 -> 1 [labeldistance=2.5, labelangle=45, headlabel="True"] ;
2 [label="entropy = 0.518\nsamples = 43\nvalue = [61, 8]\nclass = class_1", fillcolor="#e89253"] ;
0 -> 2 [labeldistance=2.5, labelangle=-45, headlabel="False"] ;
}