digraph Tree {
node [shape=box, style="filled, rounded", color="black", fontname="helvetica"] ;
edge [fontname="helvetica"] ;
0 [label="Descriptor <= 1.618\nentropy = 0.951\nsamples = 65\nvalue = [63, 37]\nclass = class_1", fillcolor="#f4cbad"] ;
1 [label="entropy = 0.0\nsamples = 15\nvalue = [0, 27]\nclass = class_2", fillcolor="#399de5"] ;
0 -> 1 [labeldistance=2.5, labelangle=45, headlabel="True"] ;
2 [label="entropy = 0.576\nsamples = 50\nvalue = [63, 10]\nclass = class_1", fillcolor="#e99558"] ;
0 -> 2 [labeldistance=2.5, labelangle=-45, headlabel="False"] ;
}