digraph Tree {
node [shape=box, style="filled, rounded", color="black", fontname="helvetica"] ;
edge [fontname="helvetica"] ;
0 [label="Descriptor <= 1.721\nentropy = 1.0\nsamples = 65\nvalue = [50, 50]\nclass = class_1", fillcolor="#ffffff"] ;
1 [label="entropy = 0.0\nsamples = 23\nvalue = [0, 43]\nclass = class_2", fillcolor="#399de5"] ;
0 -> 1 [labeldistance=2.5, labelangle=45, headlabel="True"] ;
2 [label="entropy = 0.537\nsamples = 42\nvalue = [50, 7]\nclass = class_1", fillcolor="#e99355"] ;
0 -> 2 [labeldistance=2.5, labelangle=-45, headlabel="False"] ;
}