digraph Tree {
node [shape=box, style="filled, rounded", color="black", fontname="helvetica"] ;
edge [fontname="helvetica"] ;
0 [label="Descriptor <= 1.814\nentropy = 0.951\nsamples = 62\nvalue = [37, 63]\nclass = class_2", fillcolor="#add7f4"] ;
1 [label="entropy = 0.684\nsamples = 47\nvalue = [14, 63]\nclass = class_2", fillcolor="#65b3eb"] ;
0 -> 1 [labeldistance=2.5, labelangle=45, headlabel="True"] ;
2 [label="entropy = 0.0\nsamples = 15\nvalue = [23, 0]\nclass = class_1", fillcolor="#e58139"] ;
0 -> 2 [labeldistance=2.5, labelangle=-45, headlabel="False"] ;
}