digraph Tree {
node [shape=box, style="filled, rounded", color="black", fontname="helvetica"] ;
edge [fontname="helvetica"] ;
0 [label="Descriptor <= 1.721\nentropy = 0.993\nsamples = 63\nvalue = [55, 45]\nclass = class_1", fillcolor="#fae8db"] ;
1 [label="entropy = 0.165\nsamples = 24\nvalue = [1, 40]\nclass = class_2", fillcolor="#3e9fe6"] ;
0 -> 1 [labeldistance=2.5, labelangle=45, headlabel="True"] ;
2 [label="entropy = 0.419\nsamples = 39\nvalue = [54, 5]\nclass = class_1", fillcolor="#e78d4b"] ;
0 -> 2 [labeldistance=2.5, labelangle=-45, headlabel="False"] ;
}