digraph Tree {
node [shape=box, style="filled, rounded", color="black", fontname="helvetica"] ;
edge [fontname="helvetica"] ;
0 [label="Descriptor <= 1.71\nentropy = 0.99\nsamples = 62\nvalue = [56, 44]\nclass = class_1", fillcolor="#f9e4d5"] ;
1 [label="entropy = 0.183\nsamples = 21\nvalue = [1, 35]\nclass = class_2", fillcolor="#3fa0e6"] ;
0 -> 1 [labeldistance=2.5, labelangle=45, headlabel="True"] ;
2 [label="entropy = 0.586\nsamples = 41\nvalue = [55, 9]\nclass = class_1", fillcolor="#e99659"] ;
0 -> 2 [labeldistance=2.5, labelangle=-45, headlabel="False"] ;
}