digraph Tree {
node [shape=box, style="filled, rounded", color="black", fontname="helvetica"] ;
edge [fontname="helvetica"] ;
0 [label="Descriptor <= 1.718\nentropy = 0.965\nsamples = 63\nvalue = [61, 39]\nclass = class_1", fillcolor="#f6d2b8"] ;
1 [label="entropy = 0.211\nsamples = 20\nvalue = [1, 29]\nclass = class_2", fillcolor="#40a0e6"] ;
0 -> 1 [labeldistance=2.5, labelangle=45, headlabel="True"] ;
2 [label="entropy = 0.592\nsamples = 43\nvalue = [60, 10]\nclass = class_1", fillcolor="#e9965a"] ;
0 -> 2 [labeldistance=2.5, labelangle=-45, headlabel="False"] ;
}