digraph Tree {
node [shape=box, style="filled, rounded", color="black", fontname="helvetica"] ;
edge [fontname="helvetica"] ;
0 [label="Descriptor <= 1.721\nentropy = 0.981\nsamples = 63\nvalue = [58, 42]\nclass = class_1", fillcolor="#f8dcc8"] ;
1 [label="entropy = 0.0\nsamples = 21\nvalue = [0, 33]\nclass = class_2", fillcolor="#399de5"] ;
0 -> 1 [labeldistance=2.5, labelangle=45, headlabel="True"] ;
2 [label="entropy = 0.569\nsamples = 42\nvalue = [58, 9]\nclass = class_1", fillcolor="#e99558"] ;
0 -> 2 [labeldistance=2.5, labelangle=-45, headlabel="False"] ;
}