digraph Tree {
node [shape=box, style="filled, rounded", color="black", fontname="helvetica"] ;
edge [fontname="helvetica"] ;
0 [label="Descriptor <= 1.71\nentropy = 0.993\nsamples = 66\nvalue = [55, 45]\nclass = class_1", fillcolor="#fae8db"] ;
1 [label="entropy = 0.0\nsamples = 21\nvalue = [0, 37]\nclass = class_2", fillcolor="#399de5"] ;
0 -> 1 [labeldistance=2.5, labelangle=45, headlabel="True"] ;
2 [label="entropy = 0.549\nsamples = 45\nvalue = [55, 8]\nclass = class_1", fillcolor="#e99356"] ;
0 -> 2 [labeldistance=2.5, labelangle=-45, headlabel="False"] ;
}